digraph Tree {
node [shape=box] ;
0 [label="First <= -1.558\ngini = 0.666\nsamples = 112\nvalue = [35, 38, 39]"] ;
1 [label="gini = 0.0\nsamples = 35\nvalue = [35, 0, 0]"] ;
0 -> 1 [labeldistance=2.5, labelangle=45, headlabel="True"] ;
2 [label="First <= 1.3844\ngini = 0.4999\nsamples = 77\nvalue = [0, 38, 39]"] ;
0 -> 2 [labeldistance=2.5, labelangle=-45, headlabel="False"] ;
3 [label="Second <= 0.7586\ngini = 0.1761\nsamples = 41\nvalue = [0, 37, 4]"] ;
2 -> 3 ;
4 [label="First <= 1.2396\ngini = 0.0555\nsamples = 35\nvalue = [0, 34, 1]"] ;
3 -> 4 ;
5 [label="gini = 0.0\nsamples = 31\nvalue = [0, 31, 0]"] ;
4 -> 5 ;
6 [label="First <= 1.2783\ngini = 0.375\nsamples = 4\nvalue = [0, 3, 1]"] ;
4 -> 6 ;
7 [label="gini = 0.0\nsamples = 1\nvalue = [0, 0, 1]"] ;
6 -> 7 ;
8 [label="gini = 0.0\nsamples = 3\nvalue = [0, 3, 0]"] ;
6 -> 8 ;
9 [label="First <= 0.3523\ngini = 0.5\nsamples = 6\nvalue = [0, 3, 3]"] ;
3 -> 9 ;
10 [label="gini = 0.0\nsamples = 3\nvalue = [0, 3, 0]"] ;
9 -> 10 ;
11 [label="gini = 0.0\nsamples = 3\nvalue = [0, 0, 3]"] ;
9 -> 11 ;
12 [label="First <= 1.5251\ngini = 0.054\nsamples = 36\nvalue = [0, 1, 35]"] ;
2 -> 12 ;
13 [label="Second <= -0.1499\ngini = 0.375\nsamples = 4\nvalue = [0, 1, 3]"] ;
12 -> 13 ;
14 [label="gini = 0.0\nsamples = 1\nvalue = [0, 1, 0]"] ;
13 -> 14 ;
15 [label="gini = 0.0\nsamples = 3\nvalue = [0, 0, 3]"] ;
13 -> 15 ;
16 [label="gini = 0.0\nsamples = 32\nvalue = [0, 0, 32]"] ;
12 -> 16 ;
}